{
    "0": {
        "weights": [
            [
                0.7068545071242089,
                0.7446451083766792,
                -0.33388038549073706,
                0.7668777981520709,
                0.3295853226716
            ],
            [
                0.5797411811546241,
                0.8900965704581278,
                0.393753709396273,
                -0.771634589809475,
                0.5361619322730976
            ],
            [
                -0.4912228854647409,
                -0.5079706193579409,
                -0.3004327439414797,
                -0.04837425131098487,
                0.017479822335214543
            ],
            [
                -0.17250631156622165,
                -0.6717945020225231,
                0.4200200829204206,
                -0.4756881911723775,
                0.5389490850169257
            ],
            [
                0.6076005594606744,
                -0.024671707964875333,
                -0.24570248156965202,
                -0.6692502180909969,
                0.7273873223775061
            ],
            [
                -0.743597152812799,
                -0.9573646538371506,
                -0.19309292668672576,
                0.7214853928690503,
                -0.6129899260542068
            ],
            [
                0.7422967618812456,
                -0.656132410051394,
                -0.8691440712787295,
                0.6385552415845975,
                -0.31915630217719426
            ],
            [
                0.42101103627371284,
                0.12413952063286185,
                -0.7556847709223204,
                0.5173610812474321,
                0.4690649149945635
            ],
            [
                -0.4373106230518389,
                0.7512441430434669,
                0.4390298742794298,
                0.5391508160783198,
                0.9161260760594887
            ],
            [
                -0.48505699427310034,
                -0.3924986749168863,
                0.8488156887619354,
                -0.11857292388998589,
                0.07994549776867785
            ]
        ],
        "bias": [
            0.8956069600657923,
            -0.3352638954399876,
            -0.5619941994919264,
            -0.1931514177832573,
            -0.5972538497369484,
            0.8608446022355389,
            0.8144334409530382,
            -0.1518545006979426,
            0.7842364172350219,
            0.05070837565141799
        ]
    },
    "1": {
        "weights": [
            [
                -0.7410813194211301,
                -0.3803416538775945,
                0.40977282094876544,
                0.3862178266635759,
                -0.07831613223215776,
                0.7737121905451956,
                0.5949711980929921,
                0.8913365179563316,
                0.025833792771933938,
                -0.6189458981594774
            ],
            [
                0.5836668357359206,
                -0.4433127059783884,
                0.3939641046853313,
                0.17380730999925864,
                -0.8119362186870317,
                -0.6583661309683543,
                0.7348707740246272,
                0.49026166597891685,
                -0.7626721551234507,
                -0.7366335566295491
            ],
            [
                -0.8869341826173086,
                -0.7622312174851313,
                -0.16301049742242896,
                0.7832178863387634,
                -0.5887378836269567,
                0.9046374816686916,
                -0.34946559453262876,
                -0.5460590533132588,
                -0.41457427027796917,
                -0.0967950348483595
            ],
            [
                0.7329421958943605,
                -0.8441438674750023,
                0.4494828713609782,
                -0.3587206443171359,
                -0.23528260874000947,
                0.2691138454082553,
                0.7369408725789257,
                0.12855081833549353,
                -0.3781736270213131,
                0.7085989888743282
            ],
            [
                -0.14905033474289187,
                -0.1936412907983251,
                -0.03650360608932877,
                -0.357767807858025,
                0.26215389365265634,
                0.6784845445154531,
                0.5951598907187546,
                0.14649824827629354,
                -0.7446417129771152,
                -0.1247433314826174
            ],
            [
                -0.4329296185618181,
                -0.43170976108635245,
                -0.542613961876237,
                0.7537598374075344,
                -0.7990613977101299,
                0.7228404824632847,
                -0.7690175164466662,
                -0.7595903509004687,
                -0.4834609754297065,
                0.3523689554815399
            ],
            [
                -0.694256009880739,
                -0.7647304503530284,
                -0.884062989850171,
                -0.39803458225015914,
                0.45698197284815856,
                -0.28606351767227167,
                0.6603922970559886,
                -0.7980238600319014,
                0.39286008912556825,
                -0.13545294152844137
            ],
            [
                0.10259187070537065,
                0.20226425630583508,
                0.2542066316635257,
                0.43292673707923257,
                -0.40265757146086356,
                0.8750689827334646,
                -0.3338464157652035,
                -0.44429858898895663,
                -0.16742648828783635,
                -0.7695916083817111
            ],
            [
                -0.9421548207526333,
                -0.3537337407577582,
                -0.7094757420450278,
                0.08782732136048807,
                0.18121622772157425,
                0.4086802665929499,
                -0.5120424384239763,
                -0.3510065642933845,
                -0.4397136162080173,
                -0.49802297104821824
            ],
            [
                -0.099901092883192,
                -0.9511626059946439,
                -0.5949323059387259,
                0.47141644963398843,
                0.33982073737450885,
                0.8302936232442084,
                0.359988314442733,
                0.8754295026351654,
                0.7948784893905411,
                0.33955173749272255
            ]
        ],
        "bias": [
            -0.28399607134582683,
            -0.1547916996283753,
            -0.8076274462407788,
            -0.16857139701692855,
            -0.036094708004735354,
            -0.0009963048672211872,
            0.025304875887816602,
            0.7283589358809079,
            -0.694199511509076,
            -0.49101479207523113
        ]
    },
    "out": {
        "weights": [
            [
                0.4902645025840997,
                0.6060382785802595,
                -0.22090602958137268,
                0.8058331454582144,
                0.045135529142304634,
                0.3796055265350947,
                0.46028959454450963,
                0.8843288074344268,
                -0.5086053520967139,
                0.6994751338006
            ],
            [
                0.8872122708034117,
                0.2498862388344079,
                -0.4981508267371037,
                0.611764700545016,
                0.728045844079257,
                -0.7061061093957538,
                0.5271089229241912,
                -0.7774726838253385,
                -0.9115869077845931,
                0.9274952603258477
            ]
        ],
        "bias": [
            -0.5018884221606017,
            0.17823156998555073
        ]
    },
    "hits": 3
}