{
    "0": {
        "weights": [
            [
                0.6320994752188438,
                0.2285403650764587,
                -0.6155695757258,
                -0.32175481697577046,
                0.3823241406243745,
                0.215686765603122,
                0.19480645245502354,
                -0.017516472918720383,
                0.35975895783499284,
                0.2729383518029045,
                -0.7466909208760326,
                -0.15802450184890815,
                -0.11089658229426896,
                -0.5777058823545129,
                0.6810380112303538,
                -0.2716084316495243,
                0.5399692259258547,
                -0.6056505611423678,
                -0.5002509146191246,
                0.30861974491047844,
                -0.335991380130906,
                0.2749881136569465,
                0.09873342548295444,
                0.4338101074466939,
                -0.07033054566084135,
                -0.22246589946237016
            ],
            [
                0.007052777395302384,
                0.4569194120857295,
                0.11291435974348066,
                -0.5446732031634895,
                0.008215659515212349,
                0.30317335765210857,
                0.03204070478628496,
                0.013390840059403719,
                -0.1537067348117067,
                0.0038228877170063263,
                -0.8065022267503452,
                0.30526958651082237,
                -0.13572323996030067,
                0.5809396225266171,
                0.1943764359945921,
                0.4933357170646444,
                0.20506572849727955,
                0.4903825562743427,
                -0.5171461829532544,
                -0.23640787396185586,
                -0.07993345169435154,
                -0.7607766941296714,
                -0.18843759598467136,
                0.13115938085630616,
                0.3634400209922609,
                -0.19055932985382001
            ],
            [
                -0.5757597567457158,
                0.6753050503226744,
                0.17644962995519367,
                0.6392157890434167,
                0.07865790408259954,
                0.23470318683952907,
                0.032870811760978225,
                0.3822888810829095,
                0.10331469467433982,
                0.25389859718626917,
                -0.04146813771690527,
                0.4064818585424175,
                -0.029304114111949886,
                0.7093305710309581,
                -0.22941253889403304,
                0.44939642894765186,
                0.3710182612000136,
                0.23731765867825155,
                -0.09928823482451876,
                0.08553522509633202,
                -0.47725522443002255,
                0.13243880539589548,
                0.29061106126834674,
                -0.3297712015401943,
                -0.13778503746358295,
                0.6778352773199925
            ],
            [
                -0.21419809118064856,
                0.09188888100021864,
                0.3288605800418264,
                -0.057476313042768123,
                -0.376383753627614,
                0.7321931999901425,
                0.15101119965346982,
                0.502104879424492,
                -0.462915860127654,
                -0.04865188145508992,
                0.537758955091116,
                0.0038382921768060907,
                -0.35243472988515506,
                0.005341241418718112,
                -0.04232991648745914,
                0.521419467940496,
                -0.21894124723340913,
                -0.6088919260710104,
                0.398934882591082,
                0.6404782520604901,
                -0.18899255115923025,
                -0.4991696444717243,
                0.1748841219495716,
                -0.007486775371624038,
                -0.37391877219535297,
                -0.46692898137806843
            ],
            [
                0.014852326839325858,
                -0.2700936011058623,
                0.0036848789442842644,
                -0.06811370321325605,
                0.3688152023354218,
                0.12872546616404063,
                0.4590475642423245,
                0.26384925225292466,
                -0.3263733853163282,
                -0.36420301951858225,
                0.04495713085777264,
                0.194866890710787,
                0.5270332212006333,
                0.011409587466431503,
                0.5259006354349705,
                0.4999166183081687,
                0.05636223533571857,
                0.07451991724440335,
                0.29991681167778145,
                -0.027169650154523925,
                0.1675676650056269,
                0.22124767456192806,
                -0.1323312364596374,
                0.14440907495412425,
                0.4703542474505942,
                0.2785526849583665
            ],
            [
                0.6620634747468118,
                0.09540594204977482,
                -0.33098061750952595,
                0.6518782140998349,
                0.6031748307906369,
                -0.4872971046503817,
                0.19200221475311507,
                0.43937456377346573,
                -0.19322510166872464,
                -0.532394171756624,
                -0.06273777327201707,
                0.6115613406538369,
                0.5966433231143399,
                0.8862667223680112,
                0.7377725296388908,
                0.5684173927232826,
                -0.31994839108136347,
                0.4180759693454061,
                0.04308006653513474,
                -0.42880827525908943,
                0.16759962833115108,
                -0.5635105179770983,
                -0.7167640195147418,
                0.43319483071231357,
                0.15600628126583538,
                0.03238604399109385
            ],
            [
                0.20065593818770594,
                -0.1922409432241225,
                0.13796971632534988,
                -0.4112609309594861,
                0.17303985874520617,
                -0.03631083750367892,
                -0.17022583606590386,
                0.2173570780293419,
                -0.1775986890763297,
                -0.5232617054770863,
                -0.1450392498619293,
                0.11133421765988694,
                0.014879058012599145,
                -0.7566191795476139,
                -0.18852091194090934,
                0.3307176526081774,
                0.1814854571779756,
                0.5347844763907468,
                0.30539514535570444,
                -0.13708255754013188,
                0.06305605119058064,
                -0.24056835207867622,
                0.29450300931393114,
                -0.24563610031318464,
                -0.46657722625823966,
                -0.7064388239700166
            ],
            [
                -0.6783050836890567,
                0.26454881680818504,
                0.2459507832905547,
                -0.0016248193835076141,
                0.1776066724950361,
                0.4799083559348253,
                -0.3930772521368636,
                0.1509470374617411,
                -0.36560152107574434,
                0.012499546945374751,
                -0.4272690159119117,
                0.38924034838582283,
                0.15216810499357047,
                0.41380761988099796,
                0.36890549833967945,
                -0.19316820882790994,
                0.19245606289441358,
                -0.19155072605960488,
                0.41076402076872975,
                -0.4385234270796321,
                -0.21778561603016894,
                -0.3319914480163183,
                0.39765496924637056,
                -0.4861572233193162,
                0.3627477216669358,
                -0.18143046661210604
            ],
            [
                -0.07576849921549095,
                -0.009960553614172252,
                -0.27816403129371736,
                0.31054051480532807,
                -0.10923714061748992,
                -0.6024909841234616,
                0.020205605538786184,
                -0.5566715278175915,
                0.03738994375570767,
                -0.06436417682890677,
                -0.5337641386805346,
                0.4589655046342845,
                0.28943002366557613,
                0.04173058729129098,
                -0.3068950807488414,
                0.6389217430608323,
                0.07964196165341761,
                -0.04748537554310886,
                -0.04316673802992055,
                -0.5816762205287181,
                0.10227838665325656,
                0.3112123638691927,
                -0.29121111068047467,
                -0.28189434143057196,
                -0.4380087122520134,
                0.29268848451590723
            ],
            [
                0.4082993166840156,
                0.22563519718358957,
                -0.588758590796799,
                0.5744483413970972,
                -0.13271780768671576,
                0.3876878477627024,
                0.3496831247388206,
                0.48560985579377053,
                0.6170647339770917,
                0.22568863040393783,
                0.4990972684578576,
                0.06160353273183966,
                0.05617339734774489,
                0.3976363769254161,
                -0.09370485394242284,
                0.5111323200695463,
                -0.6498214713686996,
                -0.32756100700234003,
                0.4461576881922006,
                -0.25631221456862097,
                0.3703621876574793,
                -0.5839392808154622,
                0.46135212873216014,
                0.2730806937415822,
                0.5911882755137061,
                0.39938229150444554
            ]
        ],
        "bias": [
            -0.11000811467013448,
            -0.0180219903375351,
            -0.4369185184189527,
            -0.018995845265056488,
            0.5577536121690798,
            -0.8225863163111817,
            -0.5323837095274666,
            0.29610381173830713,
            -0.33402288205659736,
            -0.21189042140566888
        ]
    },
    "1": {
        "weights": [
            [
                0.16935437749478702,
                0.24173601215571774,
                0.27906834854845075,
                0.48736992287618186,
                -0.5219861861404783,
                -0.004462733386924378,
                0.36945662472064217,
                0.7184137774869557,
                0.1998252894387863,
                -0.39519413849337615
            ],
            [
                -0.06869833318204244,
                0.1057532079501835,
                -0.4364234574144713,
                0.0762414757239096,
                0.0014793495757909891,
                0.012002143779564434,
                -0.4574971424419867,
                0.6336370110205198,
                -0.7640267996210479,
                -0.5347662500904693
            ],
            [
                0.21575484998321925,
                -0.25314173177917687,
                -0.15549390461243753,
                -0.4937608651122814,
                0.5030714106939875,
                0.42057736533738505,
                0.5987398008213197,
                0.33232146040713395,
                -0.011310578659106452,
                -0.5590072920866858
            ],
            [
                0.6686546182475527,
                -0.4365347062971892,
                -0.5002200364184888,
                0.27183310998877785,
                0.7462670552415562,
                0.5809906106692091,
                0.24978256436033391,
                -0.26310278065481196,
                -0.3261703727439828,
                0.5582535724423897
            ],
            [
                0.31467290329386394,
                0.14269567990765686,
                -0.09537643571899992,
                -0.11955601063573207,
                0.4877054099786954,
                0.5461667610378587,
                0.455831342051104,
                -0.24575106941437236,
                -0.8587807153079767,
                -0.35013765005362796
            ],
            [
                0.28263595615078274,
                0.05299592057076624,
                0.3688799132619221,
                0.4383687117623055,
                -0.2817802790879272,
                0.25022414116966163,
                -0.48719383068568956,
                0.5236242032385133,
                0.44918939461603086,
                0.28703546512673284
            ],
            [
                -0.5472570162870202,
                -0.16610531230819267,
                -0.2571813887070814,
                0.7621451271100556,
                0.2196332974704489,
                -0.34348163810483356,
                -0.3327659474662201,
                0.16757176196124066,
                0.13979452274631787,
                0.3481777267764544
            ],
            [
                0.5457338739888515,
                -0.19180815793872663,
                0.6226517005329076,
                0.0234303657415873,
                0.4845159892857876,
                0.285439077233893,
                0.2129135995081008,
                0.14690464671123896,
                -0.17550980852192122,
                0.08165404994120057
            ],
            [
                -0.0013048176575503057,
                -0.5060575811855672,
                -0.41005187407226307,
                0.7835978327261761,
                -0.24228737265111377,
                0.2814906275578035,
                0.6168904279111258,
                -0.4863119822642772,
                0.430193492915727,
                -0.2639867196655573
            ],
            [
                -0.3291829642457755,
                0.06177006551899933,
                0.23287562629477737,
                0.2937614443765805,
                -0.4259370475813811,
                0.7203031832284932,
                -0.4737016186681358,
                0.6810619095563315,
                0.10122291317903986,
                -0.6028116201241029
            ]
        ],
        "bias": [
            0.24409814542287178,
            0.04402292027668442,
            0.48180590555166425,
            0.026269708560868632,
            0.7636008661572611,
            -0.5572583592934828,
            0.1983173550127878,
            0.5075328055152908,
            -0.046348971816682405,
            0.2803881558001188
        ]
    },
    "out": {
        "weights": [
            [
                -0.3029040420830862,
                0.12684102602485003,
                0.635355417953952,
                0.24544065578488405,
                -0.3382955302256826,
                0.1324874990657386,
                0.23477242856527758,
                -0.09008653891541452,
                0.18133511514770512,
                -0.2310593221557393
            ],
            [
                -0.2232430357127566,
                -0.3326523817577803,
                -0.3887131010850376,
                -0.0733276178906872,
                -0.6646890001900134,
                -0.3054868873384507,
                -0.18348072256458695,
                -0.49095951773755575,
                0.19241132749200085,
                -0.5302704976495323
            ]
        ],
        "bias": [
            -0.014551168286120908,
            -0.1982956985780453
        ]
    },
    "hits": 9
}