{
    "0": {
        "weights": [
            [
                -0.045272583067338334,
                0.11935986154194733,
                -0.06277525433535902,
                -0.07543536296449405,
                -0.04492645046896726,
                0.5249454736686585,
                -0.5619629101855583,
                -0.151278252628038,
                -0.32734263245975526,
                -0.2998094142556975,
                0.8086841979187773,
                0.2281246168073559,
                -0.22035519962270522,
                0.742605588394857,
                -0.04605570370377088,
                0.17854494532090526,
                0.2919941745757433,
                0.41401052100968144,
                0.15917363143143537,
                0.14511394726957705,
                -0.0856099878784489,
                -0.7173789875307852,
                -0.4724811794977678,
                0.0682531260076598,
                0.13081307008051182,
                0.47448040611679454
            ],
            [
                0.247333404989302,
                0.287134367893764,
                0.41579432485322015,
                0.6878148161050424,
                -0.1626241866170257,
                -0.3724608817978544,
                0.2863053762808279,
                -0.20413628221260086,
                0.41251193377746465,
                0.3969162738106726,
                0.07143444192149917,
                0.1656060512463461,
                0.10889048408214999,
                -0.35881278316210075,
                -0.09411651916084829,
                -0.7434413766306098,
                0.382824778769454,
                -0.4226891457012384,
                0.24438536276622083,
                0.06315091723275046,
                -0.4511578349263249,
                0.5134682017518647,
                -0.5729254481010209,
                -0.7636551880326716,
                0.693521217630739,
                -0.4759973899480051
            ],
            [
                -0.3146458958798301,
                0.4215688550952421,
                0.14249689681416122,
                -0.6975579626356971,
                0.7413832485012077,
                0.6592966477246004,
                -0.6288134675503272,
                0.5672983551855431,
                -0.1979631213418271,
                -0.06580275795413415,
                0.28468298324166336,
                0.22902574870741726,
                -0.18441046228284486,
                0.4853818730069831,
                0.49652161029582126,
                -0.09075283965404146,
                -0.05927998273352697,
                -0.8302873028559591,
                -0.17179856831040619,
                0.15906879334173696,
                -0.14031102858401645,
                0.600212909393221,
                -0.0777345114284147,
                -0.1715803929432842,
                0.4401874574765784,
                0.4553620275708752
            ],
            [
                0.24898826564357268,
                0.11022005916939775,
                0.4449364239405092,
                0.2845993707885026,
                0.5034599818979884,
                0.05239326061052807,
                -0.31030728846722144,
                -0.3484121920222139,
                -0.5439395305361687,
                -0.33318727337546916,
                0.14211043389277933,
                0.024439324801379003,
                -0.38785984322160394,
                0.5928005225025251,
                0.25552515944728205,
                -0.3117773909461141,
                0.321783806848522,
                0.03578340472430237,
                0.12513914043780439,
                -0.29001281942769186,
                -0.42394708548594384,
                -0.27238129077371237,
                -0.7686171811665803,
                -0.17280536028277602,
                -0.5225516733997154,
                0.26951239133027816
            ],
            [
                0.05017912012902806,
                0.12493389913398362,
                -0.36192471024311657,
                0.009907172425230292,
                0.06623271490085467,
                0.5582419559830031,
                -0.44008115264507264,
                0.16975504630987992,
                -0.7331302871075707,
                0.25027690443934003,
                0.27950166988199504,
                -0.7868425577657109,
                -0.28352168109100206,
                0.05739355266745938,
                0.48594095060650977,
                0.21124522390201522,
                0.2575812593803717,
                -0.842182318726342,
                0.2720741901581643,
                0.014411858823563106,
                0.26707485087777905,
                -0.17328838276924374,
                0.4621180646022006,
                -0.09632176407390813,
                -0.7372152346614153,
                -0.15786586639485078
            ],
            [
                0.5625849037383861,
                0.4535412933094272,
                -0.3310213986120423,
                -0.13646742163556602,
                -0.25459122561395653,
                -0.47407740709726354,
                -0.5518013570805166,
                0.15389079963570146,
                0.0355522732260255,
                0.7084033909856386,
                0.0776015250896073,
                -0.02641303152247032,
                0.6686673325585648,
                -0.4187722083833999,
                -0.24321796495386183,
                -0.7528090256918474,
                -0.31080809574587975,
                -0.39250293902265654,
                0.5976120630385796,
                -0.17722025271734662,
                0.5076903092569056,
                0.25896733928289517,
                -0.4693465037448024,
                0.34507750895739475,
                0.08194802577581661,
                -0.7720797600701367
            ],
            [
                0.245949184574358,
                -0.1610250460174636,
                -0.553388677020957,
                -0.34983611174758666,
                -0.02325376809138796,
                0.49303870736826544,
                -0.019960253521229904,
                0.849175428603744,
                -0.7406611361954242,
                0.3114263188909599,
                0.48296046347408955,
                -0.051894344122469016,
                -0.16494507079928422,
                0.3160696302337721,
                0.14412240317903824,
                -0.1342835852824289,
                -0.24903546501453344,
                -0.33855722774679164,
                0.38881281926595007,
                -0.4175536147259662,
                -0.08661612884831815,
                0.40155713358760414,
                0.4321560469378173,
                0.28396097076272525,
                0.030373949039829817,
                -0.5513074663830402
            ],
            [
                -0.2703782108903394,
                0.1509220848181314,
                0.025487085613847382,
                -0.6362862535237535,
                -0.022128591598048863,
                0.2509545372687784,
                -0.36957564383883507,
                0.12440785058992654,
                0.5224434214485519,
                -0.3398486926465186,
                0.6035807006664432,
                -0.4025940280746529,
                -0.24308738102897154,
                -0.6234465157470561,
                0.36293268438925796,
                -0.29726430951647165,
                -0.201751934909009,
                -0.1933486319113349,
                0.18695291557133298,
                0.3074485884591627,
                0.3958638103608284,
                0.49298070847261033,
                -0.01071800348133578,
                0.07715558413303958,
                0.3634326744649293,
                -0.2336070840890751
            ],
            [
                0.4246258597455281,
                -0.2079651656701964,
                0.41829771399461946,
                -0.28410766672582854,
                0.29751176485735265,
                0.7449230023683108,
                -0.39819381837518675,
                0.046982703048062735,
                -0.7444757886742072,
                -0.207479398643877,
                0.22988845851063122,
                -0.8153489493783614,
                -0.6095770365978223,
                0.3658283553007713,
                0.08228097717757404,
                -0.21883163918370008,
                -0.545074859340009,
                -0.02882198545012271,
                -0.03749090228931762,
                -0.03737390844536048,
                0.918398022396154,
                -0.1293956230906359,
                -0.26775257257759516,
                0.46691296142789784,
                -0.41483409907797075,
                0.33599318844872816
            ],
            [
                0.3724276557814932,
                0.15842568896559373,
                0.42056229770387943,
                -0.07857815512910554,
                0.7898697313930295,
                -0.018519919514937033,
                0.2770275682453874,
                0.2944539166328233,
                0.023384243631317747,
                0.492333297172005,
                -0.44096868009447054,
                0.16609117028851628,
                0.539327970053207,
                0.39318865745583664,
                0.0406812171904013,
                -0.3758983277661344,
                -0.283429103422162,
                -0.2609064372803045,
                0.3209134520697321,
                -0.10095119001544059,
                -0.20147668878346633,
                -0.22754250154312616,
                -0.029563993290610435,
                0.14284422680836778,
                0.39381360247440633,
                -0.017744781756154904
            ]
        ],
        "bias": [
            0.7598570132138244,
            0.4336910518630622,
            0.24074853197534646,
            0.17222610453931264,
            -0.584076828596696,
            -0.662287646918562,
            -0.3897410430202109,
            -0.8282137751155805,
            -0.19354084709352232,
            0.3112670470517598
        ]
    },
    "1": {
        "weights": [
            [
                0.13552773065759138,
                -0.6900255912472608,
                0.43209156295174855,
                0.35295347498447427,
                0.4055880315277204,
                0.13049718605095129,
                -0.14334308564717635,
                0.1822384049780571,
                -0.06911396025686721,
                -0.3126738909366427
            ],
            [
                0.3461333794884486,
                0.2854809514959385,
                -0.5675451492703586,
                -0.08197521703549207,
                -0.21924707084481487,
                0.14508124261269106,
                -0.1770960139305966,
                0.1761262052448557,
                0.5346819593808165,
                0.17978843650007698
            ],
            [
                0.18432082301956548,
                -0.04922583344429354,
                0.0653850376740436,
                0.8197944726829849,
                -0.5079914579314684,
                0.3663383597720875,
                0.4683045958897685,
                0.531409981468802,
                0.256264414091274,
                -0.27636671424613035
            ],
            [
                -0.05777195751385855,
                -0.13839008127306468,
                -0.3283400089050208,
                0.08706864879192203,
                0.22688411645369444,
                0.05506838402609726,
                0.10851818028367757,
                -0.7634187325029157,
                -0.4001974961986589,
                -0.14814131148771942
            ],
            [
                -0.9381858542608573,
                -0.05687350835474546,
                -0.04478595168445276,
                0.00807157784788863,
                0.451144328088407,
                -0.05193914596876309,
                -0.3236459024742847,
                0.19758411091689898,
                0.12014725719734046,
                0.5762175462262233
            ],
            [
                -0.17762254934699007,
                -0.07883832532015023,
                -0.25195296215195706,
                0.14669745964990277,
                -0.6895689563354973,
                0.10709405739491973,
                -0.038376650363647874,
                -0.4775282098817463,
                0.2355039198981188,
                -0.19752099271065038
            ],
            [
                -0.5408165594883433,
                0.5581994944300128,
                -0.3227740829201551,
                -0.18842107087377916,
                0.004298714792549618,
                0.13035136339484596,
                -0.0472186576731653,
                -0.04651267269695425,
                0.568824621252371,
                -0.7301354059496095
            ],
            [
                0.6617628614590394,
                0.6216553230496837,
                -0.11122723031331427,
                -0.7115109264262679,
                0.6612099592756713,
                -0.018894561962378376,
                0.2223184775181708,
                -0.2506175385772028,
                0.5735801856724418,
                0.2737977923536429
            ],
            [
                0.8953769955666662,
                0.46747752467716136,
                -0.16418712291266177,
                -0.5247762078277767,
                -0.42721485698400596,
                -0.7309323467009853,
                -0.06701176169964965,
                -0.14741778863603683,
                -0.0271216610294156,
                0.31434746287169
            ],
            [
                -0.21872323530321136,
                0.48315641025851397,
                -0.07593115494929226,
                0.02887089693156869,
                0.4045624487151095,
                0.5691502259190334,
                -0.15386102680283922,
                0.5855771756536088,
                0.26665047828312094,
                0.5200026773147972
            ]
        ],
        "bias": [
            -0.07858301114499622,
            -0.4294390340731536,
            0.007643374035093298,
            -0.6465996775654546,
            -0.8342294413904356,
            0.04902298005810102,
            0.13751851728393893,
            -0.1305236667392492,
            -0.48375318197793243,
            -0.4138710808977597
        ]
    },
    "out": {
        "weights": [
            [
                0.867199365194733,
                0.5805462084511513,
                0.34545699982934397,
                0.9005917881695571,
                -0.7172886188308787,
                -0.044106335429231036,
                -0.6530696992935854,
                -0.6584501772093967,
                0.1362609763684401,
                0.5660209816616353
            ],
            [
                -0.1321868144991857,
                0.021198234119017112,
                -0.5584736683551219,
                0.29939410624766377,
                -0.5635804358597366,
                0.19518332038071123,
                -0.8728779831031247,
                0.5698629501348639,
                0.4325278055365254,
                0.9041969698914724
            ]
        ],
        "bias": [
            0.5094471143576214,
            -0.3483294179419124
        ]
    },
    "hits": 1
}