{
    "0": {
        "weights": [
            [
                0.14671995188873754,
                0.5043838152921284,
                0.03745871246392343,
                0.37860611953450707,
                0.31835132079369494,
                -0.03536507743966111,
                0.01065318400741111,
                -0.5560213897757137,
                0.03633784922748062,
                0.1261909980116614,
                -0.5491132056912376,
                0.6058394794218839,
                0.8092697760358459,
                -0.10385863776467774,
                0.42901654966475894,
                -0.1441840499111252,
                0.27899905835787253,
                0.05751752456843151,
                0.3864004860897489,
                -0.6334723233895502,
                -0.8106792182337574,
                0.33500850798388504,
                0.3246340401161021,
                -0.09517706177191429,
                -0.17953776762426363,
                -0.20871672958564985
            ],
            [
                0.250001397003765,
                0.3402340376793933,
                0.3694220040649213,
                -0.10414118099115333,
                0.3360511606047347,
                -0.19883544490517102,
                -0.4179905498232932,
                -0.5450173621871183,
                -0.23095382529283526,
                0.12572185857603857,
                -0.4693910893748455,
                -0.3557120062397845,
                -0.2083211832462153,
                0.4955135404737514,
                -0.633003924845239,
                -0.09215762206900699,
                0.30667426542424625,
                0.07913363637535661,
                -0.08635259832156486,
                0.6520860895456815,
                -0.2464974192884874,
                -0.5504134809217676,
                0.013346502644354358,
                -0.3140138634573579,
                -0.26171417195154517,
                -0.22123458453441225
            ],
            [
                -0.04302569156024747,
                0.3277605353407631,
                0.4768951291960751,
                -0.381802769280056,
                0.6761402718853097,
                -0.09325476454183529,
                -0.5228917832418538,
                0.164338239022436,
                -0.573333832788463,
                -0.585858050255806,
                -0.17225348371868465,
                -0.07727866956028984,
                0.10146053576540814,
                0.41245028255345945,
                0.6317630109172838,
                -0.26288132730880026,
                0.24136201678882907,
                -0.5714854233020324,
                -0.22053540088712922,
                -0.7034395967145699,
                0.3111521969922935,
                -0.15301976192609967,
                0.39659888448543534,
                -0.37833858006656873,
                -0.28780107273292915,
                0.1735798476217285
            ],
            [
                -0.42559489564292163,
                -0.19242217718654553,
                0.6557874030631146,
                -0.21544104475907344,
                0.508207827398101,
                0.021831957609939723,
                -0.509845497830674,
                0.025399034342450444,
                -0.47636326084231523,
                0.26562668305930626,
                0.4589916647788435,
                0.08086446542606984,
                -0.23662866816528833,
                0.004576393537976564,
                -0.4609434886170606,
                0.3358914110917626,
                0.44082735656594907,
                -0.10831131184174647,
                0.6351153066180916,
                0.34027677580277804,
                0.12685560086944125,
                0.11948539151330717,
                -0.2381384186656818,
                0.08538572411883875,
                0.00982155056592729,
                0.43571347899930146
            ],
            [
                -0.0010454191996253082,
                -0.2452842760425047,
                -0.3276833455379603,
                0.4617874860314193,
                0.2704200118530527,
                0.5676148784817555,
                -0.7049140712944578,
                -0.14598721929315495,
                -0.4238950349547499,
                -0.23170831172106643,
                -0.46702300938165814,
                -0.3509014456486076,
                0.6066060820701529,
                0.19397841225154536,
                0.002881023040312708,
                0.6430435881294359,
                0.268952464970315,
                0.2863692045867532,
                -0.5420561551330199,
                -0.03174589286037166,
                -0.36080707837703174,
                -0.06499909922857039,
                -0.18286190222857854,
                0.5139943564618619,
                -0.14692144341984387,
                0.004303442416780184
            ],
            [
                0.27810027815850946,
                0.03219663552791291,
                0.07108229257699011,
                0.1294331432666973,
                0.6285931904177557,
                -0.2771167093767491,
                -0.4405774423337102,
                0.7949503345715438,
                -0.18673762138978744,
                -0.12484074581618165,
                -0.303272315136628,
                0.4942696641468409,
                0.6369113116375069,
                0.4431517078964936,
                0.5907224775842596,
                0.16643839901644603,
                -0.34591635660759573,
                -0.394032501208165,
                -0.5035073066323477,
                0.22414281984130507,
                0.47897167914246236,
                -0.46379416798911016,
                -0.6517271708312429,
                -0.043965369024961176,
                0.28658584547837884,
                -0.3619959347588002
            ],
            [
                0.26265642077749934,
                -0.272792137736425,
                -0.5135952388968545,
                0.34343299621753903,
                0.6984957142492771,
                0.2643633403598209,
                -0.4555116888658143,
                0.16305982418520787,
                -0.05621822110091457,
                -0.2532469908177951,
                0.1185049264069929,
                -0.28072567225026407,
                0.5153171553549156,
                -0.27938802259978457,
                0.3461122188388396,
                0.696418423771964,
                -0.3459910213420484,
                0.6873417913864371,
                -0.0646300720303834,
                -0.37528770517233145,
                0.038372532250099844,
                -0.3542216375964665,
                -0.19140450727243874,
                0.15263388827732371,
                -0.016869430848995726,
                -0.5872365223507537
            ],
            [
                -0.45265667565254464,
                -0.0713227731295017,
                0.1651326917194347,
                -0.41501321525690577,
                -0.2860422726276946,
                0.38261154442599765,
                0.2144585963714105,
                0.3153931210359542,
                0.5623049928325016,
                -0.1469078354469896,
                0.26536625344311415,
                0.39194164150534794,
                -0.03847925318683132,
                -0.5787068988734143,
                0.5545629872256715,
                0.31276011108380114,
                -0.19266859431858374,
                0.587682170576084,
                -0.5796570363350351,
                0.5710520297291659,
                -0.3453686144702935,
                0.3617870297022244,
                -0.39426658582025914,
                -0.42352427273860294,
                0.33024869509427157,
                0.3546267127708421
            ],
            [
                0.28977319687574243,
                -0.03795602951275434,
                -0.2649981046644916,
                0.3900946113364819,
                0.14080788396708915,
                0.09159604747480005,
                0.32051711072462585,
                0.7388786257219552,
                -0.356123856321685,
                -0.1965354034430577,
                -0.033040419964273204,
                -0.2881610713246523,
                -0.13842947286813032,
                0.23561291683967223,
                0.572592383110333,
                -0.6497689249353806,
                -0.18421534702263215,
                -0.6021001216627386,
                -0.1604524457918785,
                0.24953160493086357,
                -0.2829515838819904,
                0.43147468198105776,
                -0.3006672738842118,
                -0.1563959086320056,
                -0.7759039418228679,
                -0.21789547293740769
            ],
            [
                -0.22374718890871964,
                -0.23310590078134935,
                -0.12881503620577503,
                0.2609235881740028,
                -0.26047064806948483,
                0.07226917426530341,
                0.3524359792227243,
                -0.20108479481671215,
                0.22454776614107136,
                0.5248802057638837,
                0.11298148261726387,
                -0.19988240137296825,
                0.2952320434944836,
                0.6004004068963728,
                0.17393362310903593,
                0.35478884059168947,
                -0.030220057386376953,
                0.16034791689342168,
                -0.35244208250303155,
                0.29465614518710503,
                -0.17577621980522096,
                -0.1325852075335356,
                0.4356733274731001,
                -0.3114462998186758,
                0.03724614353636474,
                0.6323043073373632
            ]
        ],
        "bias": [
            0.014699207678803769,
            0.1744465381230086,
            -0.02507383372707754,
            0.01908189832391769,
            -0.09498282232781141,
            -0.6185108753702181,
            0.28266920196975454,
            -0.5115949236392084,
            0.15682641178302276,
            0.04586082271218411
        ]
    },
    "1": {
        "weights": [
            [
                -0.17009284137823505,
                0.32120405846098943,
                -0.6974353858120699,
                -0.2673522334342748,
                0.126402212805109,
                -0.45277851785101014,
                -0.1776729624439528,
                0.1962789413154703,
                0.4756387758848657,
                0.03333253006171871
            ],
            [
                -0.43636406430328967,
                0.2034415562460236,
                0.5878474302512092,
                -0.2335152826285949,
                0.3927509543347853,
                -0.39732410328890727,
                0.06375238909848918,
                -0.17515207380565476,
                -0.46573852862980586,
                -0.05968786239439128
            ],
            [
                -0.5504749109824156,
                0.00927987912493089,
                -0.1124254942790428,
                -0.06878094162054214,
                0.863496733509348,
                0.08010112836693076,
                0.5600157850958564,
                -0.15242654782977405,
                -0.20802106744561533,
                0.15557715513680617
            ],
            [
                -0.16701872116419436,
                0.06286174405874112,
                0.6588247774168927,
                -0.1666245208788962,
                -0.1098684269995388,
                -0.05240216172595591,
                -0.10634594711565849,
                -0.5307953125697251,
                -0.4374045507871442,
                0.03231225651322556
            ],
            [
                0.27924495227533896,
                0.04716657691489551,
                -0.33397730070968823,
                -0.8870522881510261,
                -0.5004972338172244,
                -0.046332869427021084,
                0.3726342710606906,
                0.28473989412769807,
                -0.39355168683773145,
                0.19546736938629822
            ],
            [
                -0.5014598532646309,
                -0.4856777428846921,
                -0.038028938159605175,
                0.5170472194633212,
                0.035991809632031135,
                -0.4057430553218836,
                -0.44468289421025564,
                0.07391306915902462,
                -0.3519343223654717,
                0.29991190236058296
            ],
            [
                -0.8498478033636716,
                0.01844010438468774,
                0.23723766675348373,
                0.5001226997608526,
                0.22328390307786244,
                -0.22656236263365648,
                0.7120701355337791,
                0.15183043570189864,
                -0.2210219867655711,
                -0.5978682499015225
            ],
            [
                -0.6764280866672836,
                0.15994115188089647,
                0.05535655410412449,
                -0.7588311002320542,
                -0.4971664240831467,
                -0.43160107043557283,
                0.3447266859712352,
                0.16721516813359083,
                -0.6622192759523355,
                -0.48539992174818014
            ],
            [
                -0.04241166224116366,
                -0.3627700417313617,
                -0.4596663822574981,
                0.22038039798988412,
                0.11933196871884996,
                -0.12188391514818758,
                -0.3768520206604842,
                -0.527895463530274,
                0.15666437084338056,
                -0.13266641793586606
            ],
            [
                0.012119420417720295,
                -0.21582990987368786,
                0.5889650962302944,
                -0.20489830356004374,
                -0.0873501864160014,
                -0.062138248941454546,
                -0.4541745383206863,
                0.2960666757695266,
                0.8490626736445142,
                0.3896763083500695
            ]
        ],
        "bias": [
            -0.46615959777355054,
            0.26537713467137114,
            0.22351213302148576,
            -0.48187959216952686,
            0.6397395509839825,
            -0.053564205932169526,
            0.29149115592677205,
            -0.026524698398983526,
            0.48344482063648625,
            -0.2977500642205716
        ]
    },
    "out": {
        "weights": [
            [
                -0.40721305351509585,
                0.44058828725472665,
                0.5108165322368157,
                0.357933934210363,
                0.30945228744275277,
                0.318132730216826,
                -0.48448907712317263,
                -0.5059135850208396,
                -0.184444752685898,
                0.13239825963958407
            ],
            [
                -0.18234775960320604,
                -0.2496837628391579,
                0.6757993534604856,
                0.13004128639891413,
                0.3535561990580544,
                0.4210145890026872,
                -0.1186175041380248,
                -0.7151856227317368,
                0.6702793655840439,
                0.16667314511198458
            ]
        ],
        "bias": [
            -0.07798486521437384,
            -0.45996619096344954
        ]
    },
    "hits": 5
}